function [y1] = nn_eval(x1)
%MYNEURALNETWORKFUNCTION neural network simulation function.
%
% Generated by Neural Network Toolbox function genFunction, 23-Oct-2018 10:48:57.
%
% [y1] = myNeuralNetworkFunction(x1) takes these arguments:
%   x = Qx6 matrix, input #1
% and returns:
%   y = Qx3 matrix, output #1
% where Q is the number of samples.

%#ok<*RPMT0>

% ===== NEURAL NETWORK CONSTANTS =====

% Input 1
x1_step1.xoffset = [-0.23989036130238;-0.236792068836092;-1.11851160594714;0.342983508127986;0.217581637323431;0.218135612065139];
x1_step1.gain = [1.98756403336214;1.9806718559327;1.87138099517445;1.62320697061671;1.89892104268101;1.90882749160909];
x1_step1.ymin = -1;

% Layer 1
b1 = [-2.8167762542539023229;-3.0881707766006689653;-3.0358868410118344805;2.8657803247942985614;-2.8732595618943350679;-2.8060211017211753592;2.8420076976979897765;-2.8620497967709250808;2.7718162046389172026;-3.1161522819881706248;2.3913875524885930268;-2.515881662490539572;-2.5472478665025026778;-2.4052040609467124632;2.3647526974331092298;2.2970741318205472048;-2.5087387643068996823;-2.7295368659850369752;-2.2129185208864163847;-2.3630902163322398124;4.0302128269885848511;-2.4705183237762979864;2.0209327248972130953;-2.1493688156843422377;-2.0702697503624571951;-2.4654935315200310342;2.2335630852944476921;1.670027045071749594;-1.9553116779454342566;3.2796083151249617593;-2.3074710153868815965;1.3626833944080327665;-1.7284078140163576798;1.8761819007293183414;-2.3056357358783796663;-1.2975698872391288052;-1.2888634846578221893;1.4020272000889564268;-1.7524280134558611888;1.8749606251661978806;-1.0529826528634447236;-1.1449379092136984237;-0.53552177333233075274;-0.63467807987717472784;1.3655249935658653193;-1.2151430851718638682;-1.1019658915014971523;0.7888555822029132969;-1.141141573317505431;-0.45394828178971158295;-0.91270295128036715848;-1.0915480901737346642;-0.52349376466821473386;0.37014209722420216009;-0.53032271133685759956;0.15902667494564523554;-0.72378205348251001272;0.90892291820533965829;0.27081645115815550229;0.60056854613501819973;-0.12409332250303922729;0.25094296109190417088;0.45873341670150552529;-0.13811449769158076761;-0.61792407818727101976;0.045876004123652565359;0.50630784988211430253;0.2804039984914656336;0.50433310869478142902;-0.39240045706011522642;0.28001785286610847425;-0.72642732567543955025;0.41296809806900025563;0.44270575418106883347;-1.1150638461043396177;0.58329763058604677806;-0.30504500411690088635;-0.60177582842679155917;-1.1518362571103364367;-1.2951727154852290536;2.4136204392884881287;1.3914923586079228635;0.72803520199985927164;-0.83619709285994814341;-1.2996225916238994813;-0.15988093718967155699;1.5516479930615560967;-1.4629589507256193226;-1.3591071963197951522;-1.9288820547541858375;1.3362285139066771844;1.0343653697782835277;-1.8299709923686759971;1.7941498787381697788;1.3591820988739458098;-1.7801190716661663416;-1.1524092321417043205;1.3578834235261925123;-1.5032367294032058513;-1.753642526480271302;2.6155322545237447152;-1.6279728780637612306;-2.0147094080093750357;-1.9631512662207915021;-2.2193549559796186266;1.6656310617719172207;2.4205558757774987555;-2.0813078218171856548;-3.9766011913314636139;2.4224272350558280209;2.2587540599424098531;-2.5407166310002065046;-2.5151738553065481341;2.5799497041192380742;-3.6183020086868959986;-3.3668045766024699006;2.8829744645850423623;2.8595334750502998666;2.8970462576957216605;3.3584773185774960957;2.7474613900051685356;3.5121182177478198483;-2.8546810473322508095;-2.9901336791111590152;-4.2239307949996307556;-3.1190706324739130295;3.0409417598737005228;-4.2331676521259131718];
IW1_1 = [1.266266437560023439 1.0574976450924349347 0.97203244434999425128 -3.0375241764869769234 0.79972685155395051293 -0.24748001114709639037;0.82028970746996121566 1.3670635258584122873 0.046625416502238510585 1.7915510762396806843 -1.2323650818611717739 -1.6098543134956497802;0.76131281579567910978 0.84231149817002914926 -1.6206151842658256257 1.4789260569742559426 -1.3193063156813753523 -1.415845726564580298;-0.62049929772580758591 -2.2846512601746282733 0.78851878066566305492 0.81468533596970305055 -1.8293775517811305953 0.047582970972558896738;0.73633559596990871832 -1.6255369893394862046 -1.2288715621094936647 0.23009591812490876039 1.663902594941947477 -1.5511184948429952435;1.5599911942773889706 1.0606879229170480539 -1.5028665080103460472 -0.22315426236903998514 -1.3174005918818578742 1.4470104474855252086;-1.1365183250981669705 -1.6588282875537914141 -0.37489232042722070437 0.13271428650365549307 -2.1264680328954455035 1.052676284577712007;1.6858155990043153238 -0.92123568945409173292 1.0926409778113761462 0.39192953209935427195 -1.3467139657239448614 1.67482208401116206;-0.5156192124416884015 1.6686769313526996772 -0.79354960583339206881 -1.6988992995010749887 0.45797651944068840102 -1.5696513503408981993;0.34798089976275164981 0.4568816423681729133 1.9090881944335429399 -1.2189328339221154884 1.7411643500447044897 -1.5921501690297725773;-0.97579178684411072009 0.94750448526229147372 0.04482778514138628656 -0.99463037665147624455 -2.087146895100513877 -1.539730088981255296;0.92909863319196617226 -0.11010559081722304242 -1.9089003204995653729 -0.50774419516284863274 -1.9289260568793371586 -1.4055015522798124383;1.3407170624695259331 2.5176183811387078393 0.73026594173607839444 0.030008416696549793101 0.72564521844994545052 -0.83098446954124560726;1.2551908447143620418 -0.14049841795304443548 -2.3494837380004733873 0.18380988271962087066 1.0516533928721447655 0.48513444953160728135;-0.9883614948058911942 -1.2191878841381005305 -1.6918864247904930043 1.3818372793351358929 -1.3832568425893485564 -0.89211982666442479761;-2.2039260172149552908 0.69954823192978343727 -0.97164853578059040551 -1.7082214341557984127 0.11255680848616374246 -0.32609137495824525033;1.2011765860843375275 1.2149084964132161879 -0.97047558328312077958 0.12896384548688044624 1.6964653685431134722 0.86665832016380150993;2.0170609915638184617 0.33590761784450362537 2.2124054164408710754 0.43602263763348897418 -0.83100614869486610914 -1.0702956600256594566;0.9966526213692252778 1.6312381602424574911 -0.034473542683111133011 1.8444659845456479186 -1.5171759232757391356 0.68213274024899550607;1.347503023777055553 1.3903414582706119518 -1.2647086388931794154 1.1305121100823172231 -0.74582441156581225083 -1.4389183711047142111;-1.4557975392681312687 1.9973488131057213213 0.78237466554508494632 1.5293657948849863626 -1.0931573577808468833 3.1747900090123257755;0.53473483144796318811 -0.7693213669088487805 0.49235982189458293856 -1.1133854663660616158 1.5907608845603991021 -1.144077854771287539;-2.2836158340484526974 -0.35874266779085606238 -1.0173612997810785874 0.093438039364649880247 -1.6469906625163861502 -0.89362834841231886251;-0.24671397914764389703 -0.93680171945177970194 -1.4795109010260769633 -1.5911622387279222846 1.2605909920234006361 -1.2548464937629209004;1.0714892405582914225 0.94978711120282333091 -1.608052501200905926 0.44812620439509198711 0.84587397127200880664 -1.9351953154446857042;1.2933588099154675888 -0.16536731303048946007 2.1363474103645838653 -1.1418889776186238461 1.0955372393612474724 -0.41183345608057092546;-1.7549258523584725378 -0.41075542325004565924 -0.71628470583154213447 0.055651797930379630353 -2.1398593839524182592 0.92094906501128914744;-1.770852415108187472 0.95706942116609483584 0.52531783815522758996 -0.64650525166125183407 -0.85594757533739640465 0.4879519456297597424;1.1650997434151568743 1.7137606342433646667 -1.3481491768924060981 -1.3422848468896604324 0.95469805580397104627 -0.46314241400534733595;-2.4430499664534068849 1.0548959973258342782 -0.57140860663814285747 2.3680227932274937608 -0.97328675498290140311 1.8955954624733610814;0.37704690510614885524 2.0574559975480637419 0.63626674110404490836 0.67382365312092318277 -1.8845317373765764213 -0.15230144288251856732;-0.34591919170636631353 0.31736060974847868366 1.7790925222720752608 0.37674791804213636492 -1.8119143701029256643 -1.0713721835080327605;0.64138987449009188246 -2.2538809025778547834 -1.4594979881059151339 0.86628117865235909623 -0.33685458828077985416 0.80075870793927661495;-0.2719577206439459105 -2.3593939053591119759 -1.5405327219300120056 0.46168727632753847612 0.077543358559243116823 -1.1070070431521736865;1.6005210552309774297 -1.5972379883931406841 0.83058884436864954814 -1.373650511828450993 0.72137756806897046502 0.33265259796439600182;1.2920017700308044084 0.63110676174744939626 0.4960540194675688852 1.2399906020537203588 -1.6580653416435922054 1.8350471972359438944;1.0867295354057100454 1.4301001770250807432 -0.77143700639939283281 1.3444604649657845297 -1.9282968970011320486 -0.35530967106291694302;-1.2152181194323325997 0.64233950534590245063 -0.76008560822492177156 1.4346512278995593448 1.0122432160181116245 -0.045957430822828250483;1.3145606720337632556 1.8052146930509065381 0.16255398248563951435 -1.4567395711208679376 -2.2390532714882032117 0.68790584162214074571;-0.21512307027762250788 0.75847652406122822999 -1.7454197853259796336 1.7821436470140838981 -1.7907677451077594899 -1.1223757937284133401;1.9229322303477420775 -0.35771516831479543974 1.6633406451582166685 1.1437604161808923031 0.084218459369443776641 1.5704983697777605833;0.80668992820336782312 2.0063380385560400931 -0.67386486872716944152 -1.0188229461685271993 0.57137038449407318019 -2.6584792943972446189;-0.13078714600626095699 -1.5643644536872114426 -1.2357640697552716436 0.72338384255404541978 0.28719082462088191265 -1.6641694362443488764;1.1568190819234795974 0.17332979329502434807 0.15216849306147506304 2.2027414963882319121 -0.89566521538016974358 -0.55201542628500466225;-0.74105448511727367578 -1.0205018789687889669 0.92462588902294495785 1.8219714105832733875 -1.1924260482257573734 -0.84473861503012981355;0.53081326235531545166 1.4496218297685501408 -1.0935407820796041456 -1.7124913611869674313 -0.13461423501334568442 1.0694045957739057862;1.2159035909035922352 -0.97600611377403889701 -1.8785850599799758243 -0.28559612838739661944 -0.78680326378851239699 -1.6504471046590880601;-1.4039199100213484162 -0.53330108130967213143 1.2840547918111238079 -0.4048115837766668168 -1.6553552490244343165 -0.70900390347773933897;0.051584944803254581536 1.4075794894362330112 -1.0580782649677018536 -2.4035919919541051115 0.79450903759940416649 -1.7555896028969049105;0.38973684626939703035 -0.62079764039002960363 2.2223888544638579212 -0.80971774633599780113 0.65975293509425425587 2.7575543810617362261;0.12134400896940324144 -2.4196609021289510189 -0.86071513714163605524 -0.15346835493246582804 1.1489805474674121832 0.79124050031784520787;0.54641689533049786487 -0.012719630436185545147 -1.2357605740041472941 -0.9133451726351947686 1.8959620925756717202 1.2121870735940996067;1.586338846678648995 2.0191597524823476917 1.3333703423030531798 0.93346143552677873778 -2.0381500226640052453 0.50060860924985350895;0.41367819361892049779 -1.6709621296053309703 -1.1979048929673341561 1.3025430498199082052 0.98562476246716990147 -0.12387785680509165454;1.190297789957501573 1.5169697920142992675 -1.39124303122526638 -0.67636405201681681909 1.6049701036307024715 -0.52638671099935774311;-1.9742243384798052741 -1.3483882084616494179 -0.52281446377083484744 1.1170545320914704313 0.32105042485264506658 -1.4507481474754830852;0.28902107335546672884 0.48472221896524408935 2.3178885284430195135 -0.94537134793700872137 -0.72398799270641467363 0.27734323488636081212;-0.48266441012650707076 1.243951276609606138 -1.6493676203745379905 -0.057267645905818981289 -1.1462984392285056057 0.54835937774777221421;0.093380396342008398225 -0.68433977563087333706 -1.7603128440280564337 0.4312188269779869132 -1.2609928886402093084 1.8584259213030029922;-0.26241369871168690464 0.38738631213411711673 0.72288644490988729352 1.7653806112920902294 -0.76966231505642801469 -1.1596045204604108481;1.6265373758567296392 1.2961997896449668488 -0.21224044958754256784 1.3654106794671190261 -0.81620852583970815441 -1.7427974731962425636;-1.8888006729333544076 -0.33735024592653689579 1.4339898404222630734 1.0775071390674932914 1.5908828153529852578 0.93317233129374832501;-1.4741092787773801831 -0.99904601657666147752 0.98376489922885290706 -1.634679111189506262 1.251070812109974506 -0.092795428947222133309;-0.42939609964553077104 -1.5991482959297309563 -1.9671155557216970511 -0.96163502678754941844 -0.96477146494233412266 0.050091989207588630273;-2.402201904570855362 0.20679842508566417814 0.98961263351842021496 -0.63949962289273298843 -1.2990520689761158035 -0.64114345332971045544;0.68415856718906153944 1.2249442595445967363 1.5669464940773814021 -1.6029344346046201508 -0.66005136155171040269 1.0905662038440289141;-0.57674526840016926421 -0.04380725807702153668 -0.010206598763208096434 1.96307325958364709 1.737076991367131118 -1.9667154881240396236;1.4566770677184581739 -1.1534933252864203457 -1.2864093443458508581 -1.2446943582590470623 -0.82586897691820504441 1.0393862518607939194;1.4061225562816106471 -0.64378125927388096805 -0.16719717934381259083 1.6622884415385892343 -1.3598749011336128678 1.2731910036502354089;-0.39132488639763535199 0.35339512538417089393 -0.82414251916419090094 -2.1046222739831792481 0.32065123331524314487 1.1490537689294098023;1.722116005459632726 1.4764174623194439295 1.2359505004909707715 -0.086742999071906662367 0.8013297783896359272 1.6050432963838905387;-1.1744249192814260052 -1.0456027675566235136 -0.28566702603136873151 -1.1794985965783915116 -1.6790593458328211263 -0.5246992109958433792;0.80808910044686343976 1.807640391129779589 0.97294516917738682604 -0.75104137034010354235 -1.4161783912566201504 -0.77580491993905398296;1.3383732399788228484 1.7839910828934713027 -1.5977664251210317303 -0.078281508066554233993 0.42590665542303668412 0.36520747206555370656;-0.31281861434433078095 1.7907509737542344208 -0.57801760055083473144 -1.6555596525632421123 -1.389164929308698504 -0.69928729999757277547;1.7976585619543299366 -0.14497935717124954547 -1.8000293812304219987 -0.078786428759301710412 -0.35073778407808625657 -1.6181450906428598291;-1.5352284826015933916 0.99151863408077123285 1.0188551379400416774 1.3426980060673630035 0.93693211823022215512 -1.8504130175299973171;-0.94177441471591150091 -0.010490143709599782096 0.3286995272612287522 -1.1033078851726385583 -0.60808112465743224817 -1.36975350320779099;-0.40850157447210333483 1.8924279914813662007 1.1672435161318228669 -1.3518800292264194773 -0.49533847128428143414 0.98131121086161965383;-1.8866159599805261138 -0.81878690833890910294 -1.4496333927796014596 -0.37866524742996598984 -1.6511590320688205313 1.1894941710302602278;1.4423950750936005427 1.7834243878685500651 2.8326818906363961936 0.43866045831826938617 2.3309612052258268378 0.74638211209565130666;0.99335819143907100326 2.0654001629488827341 -0.42767149794959630205 0.16810903255573408921 0.72455883135482879176 0.094467573434025481349;1.1911257620920234768 1.1762569804125033723 2.1725558048734936456 -0.635134458619919684 -1.0714149315367254012 0.60865715673412645881;-0.071531167171271586858 0.78065971110196963334 1.837098619478872763 0.98564163992796260949 0.79115911685070838821 1.6133077516925549144;-1.5794545313401027187 0.15066028111672519207 -0.02814657140553139883 1.1934209473846415506 -2.1299438954411544778 -0.54381759553394926066;-2.7005691363459578547 -1.6669112063584463623 -0.60418064737018106758 2.0687783842371803011 -0.99231422799154900272 0.27365272564134712763;0.47273097221854748495 1.1666889876059263198 -1.4555522011668817761 -1.2066348635019716884 -1.7619691580035639067 1.0170411158106980043;-1.6169785536350715915 1.0666457586861226581 1.9368460190785481423 -0.29599368143003967901 1.1452961695321302038 0.45997389158877138859;-2.0255927097816566196 -0.025146499836276106632 -1.3307891532982492055 -1.2206192519159719811 -1.4450566179359689567 0.73252935112808281737;-0.60687796018759787575 2.3083276198005449054 0.62416780423272999467 -1.2403687924867643488 -1.2123222961688127075 1.1710482268288777696;0.6266396319234375234 1.4739806492543303662 -0.6607767641342796594 -0.44581154944114725902 -0.057649367490383844614 2.0359717110094011083;1.4182634710538479794 0.61816079325375505871 -1.6646383456678157664 -2.0490499435826730057 -0.29839207084910074341 0.33049887379870090953;-1.3702868223641959666 -0.85167824084890897396 -1.1538755350436993297 -1.8806023478186597586 1.1086684795551875471 -0.86666792685039417687;1.8751549187204321623 -0.17948551027473017005 0.7186309622610206338 -0.51299202635520790849 1.8067738900691732162 -1.5066706280722670375;1.279188026716206128 -0.80921709725611434827 1.5551211889901599417 1.1523284977384065098 -0.91321560115598421348 -0.29948801017397413959;-0.94373689202808319632 -0.13006390226862171722 1.0690616131168200198 -1.0813546881735009997 -1.3457929802703234579 -0.059337029643197154727;-1.5613586600159272688 1.5894685099402030559 -0.91917972237448297701 -0.7406880909856433659 -1.0502723313944057892 0.13880569422975655436;0.79321792623873099704 0.81840915415895787444 -0.055128708456078069633 -2.0365152129589478847 -1.8533111236157511215 0.30731287247888877667;-0.74260623901412681214 0.42603937611657261009 -1.5504578697111137675 0.94153928782631568506 1.3157266037213146692 -0.96881343376038420168;-1.1976284538385575384 -1.151265809800565032 -0.1063318672295852918 -1.1663860563377652646 -1.5425759224096267097 -0.074597520976233094858;1.1715812344502258835 0.86544475736436898838 0.71607099129205165067 1.7526862711017749952 -0.048583756760105151207 1.0908360698962462632;-1.7831360981014048317 -1.3454860449953554014 -0.45551403285328800896 1.7289712723782606485 -1.3355073574780764734 0.53756933388793803896;-1.2927519138706844437 -0.018582125335569330687 -0.7091171336443118367 1.2327194759602098095 1.4974607134878663572 1.1507946943474749446;-2.0752798686208615564 -0.15076722288228489033 -1.3593065516768236822 -0.081460167778221473367 1.1755841520601684191 0.74864826799475603369;0.73055575785453408244 -0.79098846433927327837 3.1269938207181247058 -0.80989030604988621054 1.334510130378648185 0.41250068121724275949;1.1460525032548096735 0.95860869802711001775 0.89408298795897855893 1.4819858025805994206 1.2558077522753934296 1.1470330757000497535;1.4195085337645343415 -0.32111393957575173896 0.1496280258303838151 -1.0397470855906418841 1.6871415325163150456 0.78346982479977067548;-0.27500347077996389888 1.459612261247057674 -0.32111266623028744682 0.77511149220719233188 1.744321021130839755 1.1389160074844115744;-1.8803265452768618271 1.9070343002181695535 -0.45325099459131201751 -2.0243485502206142179 -1.357118220233012984 -0.38839837830658441309;0.18784058900129099734 -1.5003303694273901758 1.4603053874160019099 -1.5419916875361259212 -0.41028491834530789184 -0.96371318315450515968;0.36804883773018881588 -0.0033090685871073961984 -2.0070756627094534785 -1.2965884437077874747 -1.328714520507385588 -1.5126333361874209071;-0.40574735697757668973 -1.3117060742344925917 -1.9371747961444927277 -1.0869102380530895058 0.97266247996824561906 -1.2523844708677149828;-0.018891025337716214894 1.8598234617518547562 -1.7343718856093290892 -1.2930555569800696869 -0.39063915481193040025 -1.170697224944178938;0.19445174728573372258 -0.53046319666407393267 -1.5082146514917020852 -1.4982220628915734473 -0.66580964158161615174 -1.8559334258687105734;-1.4011183448648438787 1.9310899402718608719 0.33830763497300553322 -1.534089308978497046 -3.0502559900180181707 1.034173921371473126;-0.92234290941848051659 -0.027129305245434057886 -0.20378747776022376748 -0.57397490622879143718 0.55788173850520272889 -3.1215813502652882683;0.91440505131833282881 0.12424334154725739932 -1.6725775916072374017 0.93431752625759689757 -1.1440325595303046935 0.8955609108345590208;0.554247009849975103 -2.247945233718644964 -0.56957769816590042566 0.5184639880584184235 -1.2133622946409416965 -0.77503970678208367051;0.37602470399686549474 0.68374533241305091025 1.7651956247315836457 -1.3493932625551929849 1.5295447639617840707 -0.95448928741633132233;1.107520801256792975 0.35690481750748764833 -0.65676502857776708488 2.4347892092408440767 0.80915445470761404589 -2.3359651566711332471;1.6584530202201979154 2.2208299069766250788 0.90166005746705712998 -1.0748037599564952416 0.39104992043725067541 0.54076414111043646926;1.2542324012395473787 -1.5395200614379376258 -1.2883709767745257224 1.1487948758466115518 -0.03519891488532000956 1.2105598207173819958;-1.3900009804205417652 -0.78264683793463207806 -1.1486579651887440789 -1.1181401089135662996 -1.8666483851684918527 -0.28038926369295935626;-0.65703254538289190823 -1.7443054947757599127 1.7669178288365137153 1.6783411961260084055 0.55489368141554051839 0.3706162316667622747;-2.7136273486715825065 0.20516494297085874354 0.71389894627110694891 0.42156308201501757615 -1.5453095773999736551 -0.43085134944464198448;-1.3014607372071085312 1.3159379516641498409 0.031584388041105727896 1.0104684271420096842 0.43036562767343766733 -2.0764049489671458915;1.9859146662542659367 2.5906718532703720825 1.5434379876929726905 0.36465750815879205415 1.3288789133445730872 0.49172852573025960243;-0.27495578136317511131 -2.4316093623832730763 0.18611566454493763678 -1.5465796647346981008 1.2639208308804312786 -1.6343129917076764102];

% Layer 2
b2 = [-0.57758654363644035268;-0.82418442749808173975;-0.46620169162327212975];
LW2_1 = [0.52807158587688007856 0.30432743896783831516 0.49888766820220875609 -0.6261625952959990471 -0.23357181006494906472 0.52445673586816776712 -0.73603895617313142008 -0.086826055208991434475 -0.26971479790982594293 0.80730016341707189209 0.057678140141984961253 -0.38165797798063966217 -0.55910642111764197182 0.025096326234868827909 0.4307569377662808785 -0.050873768503948521569 -0.10604237346941149112 0.80495459696000892791 0.14083407678123532891 -0.88916729554660778323 -0.37606238986969908744 0.24511496025174270286 0.15902635808931875339 0.41258593077493227463 0.078234409531549628514 1.1558505909729364092 -0.538994594548055872 -0.32423106259293416054 -0.51077275941498279099 0.43979439827758365356 0.25795043107771509217 -0.038362972795738164988 -0.24504213403347172018 -0.25468230309184047844 0.17031255140682957649 0.22842825566267002668 -0.055659623639659733252 -0.17860340299939198028 -0.14592624444348073487 0.29205371605705610083 0.19919425855539904524 0.21835903657486038787 -0.024208274970151020394 0.085184861720435114951 0.37091029798882541035 -0.15775598757798908744 0.63102577734221809713 0.013329793261101991961 -0.64240670012502654185 0.07808507515511821373 -0.055627969688348474775 0.047331912616983690123 0.31118190053116473459 -0.12612689016178288415 -0.24801384763935141464 0.49361766017751768088 -0.10925551896277192754 -0.17254729455009643058 -0.31515609165985375428 -0.37507731017665907336 -0.19397239452424314132 1.0592194701046133698 -0.036074787134818556145 -0.30545312864284412946 -0.022593982203669600584 -0.17068551411736249124 0.60211712809501682919 0.33530973804239599945 0.11391866468716831118 0.12403294241308629453 -0.16059188477167066211 0.03301243267499343742 0.23616191080119203205 0.041353653885256157208 0.162414495580329582 0.25944278461013059456 0.10592884695715985843 -0.019586419605761806045 0.29162054734823267266 0.062443797373345544255 -0.88679354223305661975 0.060396881447148415001 0.16250021348359586226 -0.31420071702617763387 -0.19545213918570591982 0.2745730966899320169 0.84478376561722734461 -0.44598061393382160134 -0.082410059392650489296 -0.26898850191473000493 -0.053561314811403873404 0.80419140713185421898 0.18414217453832468219 -0.18328544337598340341 0.37684136281038826954 -0.15305719858521937837 -0.16374626945013442958 -0.038514386389706667391 0.43569810325979196897 0.48061839066612654925 0.062601389692970341172 0.69113341381324622237 -0.23718291841884622806 0.36177718328282976179 0.16203870177281978759 0.25148626088998327077 0.71603637018981569629 0.26479110034221858827 -2.0965734412580636636 0.12361626294517769065 -0.14341343007906237617 -0.21357921299017038064 0.0023263522395086640507 0.53418240504161007554 0.34532005931390535869 -1.3358009240053478894 -0.1092109202771178178 0.12997325456103911434 0.79187814339461370938 2.218401421421848152 0.46689411039493267097 0.52654065294592422575 0.86834983842101776119 0.06894094397470315605 -0.60411252186758768179 0.78173487728887702808 -0.72247708404044053143 1.7767703980551647902;1.6237037904407207733 -0.096809194547187255031 -0.81927655259608656024 0.40615779715313310438 0.37135950961463987108 -0.50015055486155590714 -0.4441663778954851316 -0.46280514806906036807 -0.88715084290610135564 0.76334739194243161897 -0.078523807850579274703 -0.99311044811447657388 0.33777973230443758546 -0.04598214385072367516 -0.47586745084308706977 -0.31016320580466438805 -0.1482486150350933729 1.5448797851528528469 -0.22063205254174883541 -0.44770966703635500794 3.1095612052335543929 -0.42258184237999885102 0.078531596552440546821 0.017613333509855156472 -0.58467466331490336451 0.20866224901142921277 -0.27699668079893713379 0.3795061023851992732 0.95993746177156247246 -1.921957148877100563 -0.89903620279634410828 0.25914370849004580988 0.39428510761177243404 -1.0062360298674175585 -0.72044181347425950701 -0.41749798232295481926 0.78901714650429244369 0.63722240001590324532 1.2075673283378041134 -1.6306636735031883045 0.82223846981752479746 0.33319686920769875371 -0.98884061873764639294 -0.60585565673082875104 0.33403039190701694361 0.55191048619581029033 -1.3801835710700067761 0.025215501327378198743 -1.1197475681901105649 1.6798017140046035411 -0.069707583877872680844 0.38973943897612334242 0.70746828267750339059 -0.075395133385570967111 -0.23446641921123639873 -0.63008726357473443525 -0.09095651961266423835 -0.42127979783766367206 0.21508874119596432806 -0.79243669673672179066 0.39554781279105744041 0.21075849860321685392 0.12843725659939780881 0.20378742185824524902 0.028396752043855475606 -0.64867640130919768104 1.0627416305325976253 -0.45834435717491600615 0.32076750237938839172 0.73555120075775271005 -0.83410983984776532196 0.11000880783669164664 0.24407523121262730825 -0.048482667926283300186 0.42050818145518831237 -0.78256080007635253626 -0.61237390980367489846 -0.17878156006208281714 1.5429348900293640146 -1.7883099652491722953 2.7977525825989748576 0.13367697510325046717 0.66307078397034335815 0.1371582802707739801 -0.28839834756346965916 -1.2954591363161578332 0.27375986350207304199 -0.023405385200621200981 0.98823985056381813408 -1.405089683987070126 0.15477878052630222871 0.39576173875314557549 0.63551744649143837584 -1.2175058732180408239 0.30335805694270107091 0.13989872929911467692 -0.84621540535352957058 -0.6717644898488939198 0.39574082271566762836 -0.20508480010380297776 1.3104283842982569208 -0.063498485975407317761 0.22003875503535211267 0.21883273792788329737 1.9511018653079383878 -0.10539478591677749197 0.95049647615938037681 -0.097265248638204279685 -1.6929910216935077916 0.029533951837987050537 0.67405181761221599768 0.96739127176956263288 0.76821664503083009201 0.17088567817358848999 1.7981105962883776606 0.36951426549816213107 -0.49382745438830338847 -0.078948307976586584722 -0.74885543676569232829 -0.17611910970739216853 -0.66706874186855791287 -0.99670686502536731677 -0.32116359682115031005 -0.65741233983418478903 -1.885480552108912633 -0.39688493229828381015 1.1245792969767118841 -1.5659546904808214762;-0.61708206477664573342 0.77766220130517593745 0.81311798303808446864 -0.43325637271978406639 -0.029411231465250049777 0.9007500952446966247 -0.39625857406047104714 -0.15852006012881153518 -0.21883897286057554799 0.81334337585771643298 0.15547969109512199681 -1.0749283814271213267 -0.63710339551461236951 0.078081683459371817313 -0.9074155325960798768 -0.012716221319333632228 0.084691301431726997984 1.3420609806482521886 -0.34731737672771578751 -0.2040170276398477478 0.42310701563011843263 0.56652703594222086902 0.33983054499974457707 -0.11589970177710109955 -0.79399347696342992275 0.25141805478742262903 -0.75268338742168616751 -0.23746568652973179536 -0.5921619964046187512 -0.60562626496310745239 -0.38118957469295994267 -0.57246292895020234326 -0.2450506646524877874 0.48745031494655177706 -0.2833717031852737156 -0.91922927812337840159 -0.20156092022940794162 0.061207143335970409792 1.4781505560264178722 0.76892484789787940436 -0.15049193236436761434 1.5721874779622322382 -0.52857732503816234892 0.091879856947756521901 -0.50456743039717899535 -0.57798852083076113217 0.047706966136466522066 0.016243497110186060767 0.69445763605872479207 -0.26050117016032053874 -0.29402876781355274938 -0.68427234542913428772 1.9165960543378435244 0.095638804898978468927 -0.20089887185196508845 0.33030505120417319453 0.56219843826696458411 -0.03351248130077946058 -0.04965443169306843485 -0.29140721865515339939 0.038773560339799208185 -0.19132813836118853223 0.24060008717861444683 -1.1114309149091707862 -0.046818601350628083479 0.85979704028293180151 -0.26334288122918564357 0.62831826498013121363 0.040023698055632536685 0.74659360820309950135 -0.14275938629278894787 0.22163722048204037574 -0.67803111590878961668 -0.095563021121517946477 -0.025338386520517466871 -0.34539659014790669023 -0.3113026954789314682 -0.63188414473198950549 0.83824422018008515334 -0.15021723298857478368 1.9978684451558716972 -0.257300038564796274 -0.67985215180911795496 0.19804767992617663963 -0.48552215647752000605 -2.0305669510679744683 -0.3224920479723678568 0.1261638427728324352 -0.13582635172710505467 0.36263645044920289617 -0.049386174948770518445 0.2286445632401365724 -0.41566552391914052267 -0.39403447357443205368 0.095384187732406588989 -0.23262516607111671796 -0.26421352475309983765 -0.36735198923907341761 0.13386825640462182707 0.25101425293403423211 0.88116286518326991661 -0.44146470077788851905 -0.52191303797524912778 -0.0017007443941189272912 0.56802535471326343064 0.15966051573478498571 0.22652043907573646275 0.43063518940748901631 -0.46441368954086825749 0.14479936944110732844 -0.60941564848869334003 -0.0086087891900749405338 -0.60780645392853094311 -0.25882785398876029248 1.0978907942991282809 0.48671345615531896867 0.75114501183173654209 0.41341687260147097494 0.080534393426855158116 -0.48952298652068354512 0.74685084658146339009 0.043875964868248427952 -0.49055056262825252889 0.72191978080479091151 -0.99692315475801551727 -0.77615156441142196808 2.0382484438318946296 -0.22592158327794917283];

% Output 1
y1_step1.ymin = -1;
y1_step1.gain = [2.00005178800332;3.33334550228768;4.00017675780384];
y1_step1.xoffset = [-0.499992777703856;-0.699997995813769;0.950018928770626];

% ===== SIMULATION ========

% Dimensions
Q = size(x1,1); % samples

% Input 1
x1 = x1';
xp1 = mapminmax_apply(x1,x1_step1);

% Layer 1
a1 = tansig_apply(repmat(b1,1,Q) + IW1_1*xp1);

% Layer 2
a2 = repmat(b2,1,Q) + LW2_1*a1;

% Output 1
y1 = mapminmax_reverse(a2,y1_step1);
y1 = y1';
end

% ===== MODULE FUNCTIONS ========

% Map Minimum and Maximum Input Processing Function
function y = mapminmax_apply(x,settings)
y = bsxfun(@minus,x,settings.xoffset);
y = bsxfun(@times,y,settings.gain);
y = bsxfun(@plus,y,settings.ymin);
end

% Sigmoid Symmetric Transfer Function
function a = tansig_apply(n,~)
a = 2 ./ (1 + exp(-2*n)) - 1;
end

% Map Minimum and Maximum Output Reverse-Processing Function
function x = mapminmax_reverse(y,settings)
x = bsxfun(@minus,y,settings.ymin);
x = bsxfun(@rdivide,x,settings.gain);
x = bsxfun(@plus,x,settings.xoffset);
end
